MTP
version = 1.1.0
potential_name = MTP1m
species_count = 2
potential_tag = 
radial_basis_type = RBChebyshev
	min_dist = 1.95
	max_dist = 5
	radial_basis_size = 8
	radial_funcs_count = 2
	radial_coeffs
		0-0
			{1.481827042274217e+01, -4.361855500178697e+01, 2.526952239431802e+01, -2.742103164289834e+01, 1.728587567787651e+01, -1.134057498603148e+01, 4.321756776393105e+00, -3.859379570295711e+00}
			{1.341677793103827e+00, 1.002417066680099e+00, 2.683213474735402e+00, 9.484810272798743e-01, 2.231256916212204e+00, 1.476985407598760e+00, 1.209840723926274e+00, 6.660479439835065e-01}
		0-1
			{-6.711479472922917e+00, -2.688042307185922e+00, -1.128744217284269e+01, -2.294961502702766e+00, -5.447105130361614e+00, -9.265420880246018e-01, -1.411169673965474e+00, 3.619811583088095e-01}
			{-4.514447048981415e+00, -3.233524002617681e+00, -6.870482574303692e+00, -2.696544727424603e+00, -3.354979992349200e+00, -1.753350474018347e+00, -1.335146389156067e+00, -5.580197122893882e-01}
		1-0
			{9.450524988651217e-01, 9.678758510305077e+00, 8.103577463591430e-01, 7.394895812775207e+00, 1.614855394955802e+00, 4.442078834163188e+00, 1.809858573345116e+00, 1.921016877670972e+00}
			{2.969952932941137e-01, 6.147594641928980e+00, 1.409144059964242e+00, 4.807597222346851e+00, 9.986176360849354e-01, 2.764904566042245e+00, 1.118660958717662e+00, 1.295681888948754e+00}
		1-1
			{-1.317157769557819e+01, -2.788671265481741e+01, -2.079153064203649e+01, -1.817011303450754e+01, -1.082246265150559e+01, -1.024618857370359e+01, -4.044104313030693e+00, -2.411854382281419e+00}
			{-4.663366039917548e+00, -1.151608816324642e+01, -6.373205278108749e+00, -7.380622498678590e+00, -3.602049853141760e+00, -4.426304660992958e+00, -1.281681341434786e+00, -9.134229149676258e-01}
alpha_moments_count = 14
alpha_index_basic_count = 8
alpha_index_basic = {{0, 0, 0, 0}, {0, 1, 0, 0}, {0, 0, 1, 0}, {0, 0, 0, 1}, {1, 0, 0, 0}, {1, 1, 0, 0}, {1, 0, 1, 0}, {1, 0, 0, 1}}
alpha_index_times_count = 12
alpha_index_times = {{0, 0, 1, 8}, {1, 1, 1, 9}, {2, 2, 1, 9}, {3, 3, 1, 9}, {0, 4, 1, 10}, {1, 5, 1, 11}, {2, 6, 1, 11}, {3, 7, 1, 11}, {4, 4, 1, 12}, {5, 5, 1, 13}, {6, 6, 1, 13}, {7, 7, 1, 13}}
alpha_scalar_moments = 8
alpha_moment_mapping = {0, 4, 8, 9, 10, 11, 12, 13}
species_coeffs = {7.193727726148964e+00, 5.306875792685327e+00}
moment_coeffs = {-3.549222701031660e-01, 7.264812145692398e-01, 3.869017577712352e-03, 1.216358568268073e-03, -1.150206056554711e-02, -3.544053717903415e-03, 1.535715047740430e-02, 4.283650325716606e-03}