MTP
version = 1.1.0
potential_name = MTP_testsuite
species_count = 1
radial_basis_type = RBShapeev
	min_dist = 0.9
	max_dist = 5
	radial_basis_size = 8
	radial_funcs_count = 8
	radial_coeffs
		0-0
			{1.000000000000000e+00, 0.000000000000000e+00, 0.000000000000000e+00, 0.000000000000000e+00, 0.000000000000000e+00, 0.000000000000000e+00, 0.000000000000000e+00, 0.000000000000000e+00}
			{0.000000000000000e+00, 1.000000000000000e+00, 0.000000000000000e+00, 0.000000000000000e+00, 0.000000000000000e+00, 0.000000000000000e+00, 0.000000000000000e+00, 0.000000000000000e+00}
			{0.000000000000000e+00, 0.000000000000000e+00, 1.000000000000000e+00, 0.000000000000000e+00, 0.000000000000000e+00, 0.000000000000000e+00, 0.000000000000000e+00, 0.000000000000000e+00}
			{0.000000000000000e+00, 0.000000000000000e+00, 0.000000000000000e+00, 1.000000000000000e+00, 0.000000000000000e+00, 0.000000000000000e+00, 0.000000000000000e+00, 0.000000000000000e+00}
			{0.000000000000000e+00, 0.000000000000000e+00, 0.000000000000000e+00, 0.000000000000000e+00, 1.000000000000000e+00, 0.000000000000000e+00, 0.000000000000000e+00, 0.000000000000000e+00}
			{0.000000000000000e+00, 0.000000000000000e+00, 0.000000000000000e+00, 0.000000000000000e+00, 0.000000000000000e+00, 1.000000000000000e+00, 0.000000000000000e+00, 0.000000000000000e+00}
			{0.000000000000000e+00, 0.000000000000000e+00, 0.000000000000000e+00, 0.000000000000000e+00, 0.000000000000000e+00, 0.000000000000000e+00, 1.000000000000000e+00, 0.000000000000000e+00}
			{0.000000000000000e+00, 0.000000000000000e+00, 0.000000000000000e+00, 0.000000000000000e+00, 0.000000000000000e+00, 0.000000000000000e+00, 0.000000000000000e+00, 1.000000000000000e+00}
alpha_moments_count = 36
alpha_index_basic_count = 26
alpha_index_basic = {{0, 0, 0, 0}, {0, 1, 0, 0}, {0, 0, 1, 0}, {0, 0, 0, 1}, {0, 2, 0, 0}, {0, 1, 1, 0}, {0, 1, 0, 1}, {0, 0, 2, 0}, {0, 0, 1, 1}, {0, 0, 0, 2}, {0, 4, 0, 0}, {0, 3, 1, 0}, {0, 3, 0, 1}, {0, 2, 2, 0}, {0, 2, 1, 1}, {0, 2, 0, 2}, {0, 1, 3, 0}, {0, 1, 2, 1}, {0, 1, 1, 2}, {0, 1, 0, 3}, {0, 0, 4, 0}, {0, 0, 3, 1}, {0, 0, 2, 2}, {0, 0, 1, 3}, {0, 0, 0, 4}, {1, 0, 0, 0}}
alpha_index_times_count = 39
alpha_index_times = {{0, 0, 1, 26}, {1, 1, 1, 27}, {2, 2, 1, 27}, {3, 3, 1, 27}, {1, 4, 1, 28}, {2, 5, 1, 28}, {3, 6, 1, 28}, {1, 5, 1, 29}, {2, 7, 1, 29}, {3, 8, 1, 29}, {1, 6, 1, 30}, {2, 8, 1, 30}, {3, 9, 1, 30}, {4, 4, 1, 31}, {5, 5, 2, 31}, {6, 6, 2, 31}, {7, 7, 1, 31}, {8, 8, 2, 31}, {9, 9, 1, 31}, {10, 10, 1, 32}, {11, 11, 4, 32}, {12, 12, 4, 32}, {13, 13, 6, 32}, {14, 14, 12, 32}, {15, 15, 6, 32}, {16, 16, 4, 32}, {17, 17, 12, 32}, {18, 18, 12, 32}, {19, 19, 4, 32}, {20, 20, 1, 32}, {21, 21, 4, 32}, {22, 22, 6, 32}, {23, 23, 4, 32}, {24, 24, 1, 32}, {0, 25, 1, 33}, {25, 25, 1, 34}, {1, 28, 1, 35}, {2, 29, 1, 35}, {3, 30, 1, 35}}
alpha_scalar_moments = 9
alpha_moment_mapping = {0, 25, 26, 27, 31, 32, 33, 34, 35}
species_coeffs = {-1.161624014295261e+01}
moment_coeffs = {1.489222560885368e+00, 3.785674331846069e+00, -1.423603123607142e+00, 3.715826353089964e+00, 3.875560800357493e+00, -5.024773937667308e-01, -4.848380891651593e-02, -1.444501222936892e+00, -8.672575815397571e-01}