MTP
version = 1.1.0
potential_name = MTP1m
species_count = 2
potential_tag = 
radial_basis_type = RBChebyshev
	scaling = 0.1
	min_dist = 1.95
	max_dist = 5
	radial_basis_size = 8
	radial_funcs_count = 2
alpha_moments_count = 14
alpha_index_basic_count = 8
alpha_index_basic = {{0, 0, 0, 0}, {0, 1, 0, 0}, {0, 0, 1, 0}, {0, 0, 0, 1}, {1, 0, 0, 0}, {1, 1, 0, 0}, {1, 0, 1, 0}, {1, 0, 0, 1}}
alpha_index_times_count = 12
alpha_index_times = {{0, 0, 1, 8}, {1, 1, 1, 9}, {2, 2, 1, 9}, {3, 3, 1, 9}, {0, 4, 1, 10}, {1, 5, 1, 11}, {2, 6, 1, 11}, {3, 7, 1, 11}, {4, 4, 1, 12}, {5, 5, 1, 13}, {6, 6, 1, 13}, {7, 7, 1, 13}}
alpha_scalar_moments = 8
alpha_moment_mapping = {0, 4, 8, 9, 10, 11, 12, 13}
