MTP
version = 1.1.0
potential_name = MTP1m
scaling = 2.391038219587312e-02
species_count = 2
potential_tag = 
radial_basis_type = RBChebyshev
	min_dist = 2.000000000000000e+00
	max_dist = 5.000000000000000e+00
	radial_basis_size = 8
	radial_funcs_count = 2
	radial_coeffs
		0-0
			{1.012493343859395e-01, 4.114287708459290e-01, 2.418088244215261e-01, -2.339827285669227e-01, -2.704582253222217e-01, -4.375649282542227e-02, 9.004237212009450e-02, 1.519504432105746e-01}
			{3.113280419657554e-01, 1.216372719527017e-01, -2.137387587962054e-01, -2.194072915152362e-01, -4.599988501675409e-03, 2.273635573441269e-02, -2.886790287536498e-01, -3.403178673049221e-01}
		0-1
			{1.140268275204069e-02, 1.595374027884001e-01, 1.246913473598968e-02, -1.943174655599918e-01, -2.840326436897147e-02, 1.932040764766265e-01, 1.105779786270301e-01, 2.515527057147127e-01}
			{1.121094651593630e-01, -1.791255639775673e-01, 1.120024120821285e-01, -2.353335822784047e-01, 1.002547051595719e-01, 2.193437418146577e-01, -1.112833445072543e-01, 7.873525600089649e-03}
		1-0
			{-1.086215158716968e-01, 1.045988441343307e-01, 1.021819854937691e-02, 4.414540914562999e-02, 2.956835662007109e-02, 1.487014627523016e-01, -2.095873750835356e-02, -1.251781217100914e-01}
			{1.143978452608743e-01, -4.319604629229914e-02, 1.338386932949748e-01, -2.025175469329628e-01, -8.824692047611005e-02, 1.817287226342379e-01, -5.404712385895986e-02, -3.029934595661088e-02}
		1-1
			{5.110010540618014e-02, 2.096212256724435e-01, 2.577282040852587e-02, -1.993995968037753e-01, -2.392662375848705e-01, 3.904726710041779e-01, 1.952072443012708e-01, 1.586538363854829e-01}
			{8.752420730315345e-02, 1.206140905918822e-01, -1.553071413799841e-01, -1.936457684507769e-01, 3.806292522924540e-01, 6.101480747856450e-02, -2.415038634263178e-01, -4.787673216429575e-02}
alpha_moments_count = 8
alpha_index_basic_count = 5
alpha_index_basic = {{0, 0, 0, 0}, {0, 1, 0, 0}, {0, 0, 1, 0}, {0, 0, 0, 1}, {1, 0, 0, 0}}
alpha_index_times_count = 5
alpha_index_times = {{0, 0, 1, 5}, {1, 1, 1, 6}, {2, 2, 1, 6}, {3, 3, 1, 6}, {0, 5, 1, 7}}
alpha_scalar_moments = 5
alpha_moment_mapping = {0, 4, 5, 6, 7}
species_coeffs = {-2.142186430580809e+00, -4.125351077282652e+00}
moment_coeffs = {1.274103933511969e+00, 8.908332496255643e-01, -3.271616049523921e+00, -3.512729600521524e+00, -6.394386206547559e+00}